-5.238488316535949707e-01
-3.870231807231903076e-01
-2.958691120147705078e-01
-5.404084324836730957e-01
-4.475554525852203369e-01
-5.210161805152893066e-01
-5.411346554756164551e-01
-3.230855166912078857e-01
-5.772166848182678223e-01
-6.100795865058898926e-01
-3.563108146190643311e-01
-4.101576507091522217e-01
-4.937888383865356445e-01
-3.485457599163055420e-01
-2.818778753280639648e-01
-3.668183982372283936e-01
-4.170029163360595703e-01
-6.346653699874877930e-01
-4.373205602169036865e-01
-3.234442770481109619e-01
7.845751941204071045e-02
1.908331960439682007e-01
1.750409454107284546e-01
1.716724932193756104e-01
6.047111749649047852e-02
1.833182126283645630e-01
1.212641745805740356e-01
1.419857442378997803e-01
1.410332024097442627e-01
1.063067540526390076e-01
2.581849098205566406e-01
2.246885597705841064e-01
1.100497096776962280e-01
1.423618942499160767e-01
1.666509956121444702e-01
2.844100631773471832e-02
1.497989594936370850e-01
1.507487893104553223e-01
1.112955212593078613e-01
-1.669658124446868896e-01
4.764889925718307495e-02
1.145463287830352783e-01
2.321772649884223938e-02
1.194054707884788513e-01
1.995592843741178513e-03
-1.128612235188484192e-01
-1.650932878255844116e-01
-1.087841019034385681e-01
2.753286436200141907e-02
-3.110500983893871307e-03
-1.606934666633605957e-01
-3.688914477825164795e-01
-1.586133614182472229e-02
-7.599374651908874512e-02
3.980942070484161377e-02
-4.228571355342864990e-01
-2.273655682802200317e-01
-2.178769558668136597e-01
-2.006636857986450195e-01
-5.632060393691062927e-02
-3.115113079547882080e-01
-1.617719791829586029e-02
-1.521782130002975464e-01
-1.800355911254882812e-01
-3.169964253902435303e-02
-2.512274384498596191e-01
-4.223418235778808594e-01
-1.843369454145431519e-01
-4.086466133594512939e-01
-4.830227196216583252e-01
-6.752073764801025391e-02
-1.804849207401275635e-01
-3.474179506301879883e-01
-4.687683880329132080e-01
-3.673104643821716309e-01
-3.774313926696777344e-01
-3.478071391582489014e-01
-3.618606328964233398e-01
-3.488176763057708740e-01
-4.798050820827484131e-01
-4.645983576774597168e-01
-2.823071777820587158e-01
-3.649715781211853027e-01
-3.781446218490600586e-01
-3.788040876388549805e-01
-4.826060533523559570e-01
-3.444776833057403564e-01
-4.982617795467376709e-01
-4.398736059665679932e-01
-4.362098276615142822e-01
-4.774132370948791504e-01
-3.939444422721862793e-01
-3.914890289306640625e-01
-4.418351650238037109e-01
-5.113421082496643066e-01
-4.028958678245544434e-01
-4.697273969650268555e-01
-3.343856930732727051e-01
-3.850733041763305664e-01
-5.122613906860351562e-01
-4.270675182342529297e-01
-5.882016420364379883e-01
-4.895150959491729736e-01
-4.509705305099487305e-01
-3.026437461376190186e-01
-5.201674699783325195e-01
-4.091607928276062012e-01
-4.302021265029907227e-01
-2.230371087789535522e-01
-4.609241485595703125e-01
-2.345901578664779663e-01
-5.895686149597167969e-01
-2.459429502487182617e-01
-3.526486754417419434e-01
-4.565408527851104736e-01
-5.601432919502258301e-01
-5.875183939933776855e-01
-4.273157715797424316e-01
-5.062829852104187012e-01
-2.742391526699066162e-01
2.234786450862884521e-01
2.017601579427719116e-01
2.389869689941406250e-01
2.165982127189636230e-01
2.642466127872467041e-01
2.540171444416046143e-01
2.707144618034362793e-01
1.245832741260528564e-01
2.026981413364410400e-01
1.156074553728103638e-01
4.808016121387481689e-02
1.019679754972457886e-01
1.584604084491729736e-01
1.925703287124633789e-01
2.113560140132904053e-01
1.223684623837471008e-01
1.005598679184913635e-01
-2.011710405349731445e-02
1.513555496931076050e-01
1.988967955112457275e-01
4.955486580729484558e-02
5.797184258699417114e-02
9.866844117641448975e-02
5.760645493865013123e-02
6.335954368114471436e-02
7.839255779981613159e-02
-1.354529112577438354e-01
5.472068861126899719e-02
-6.962764263153076172e-02
-5.631798878312110901e-02
7.747802138328552246e-02
-1.484461873769760132e-01
-6.754649430513381958e-02
-2.509183585643768311e-01
-2.396705448627471924e-01
-2.251243740320205688e-01
-6.005246192216873169e-02
-3.122958838939666748e-01
-2.774398028850555420e-01
-3.452081084251403809e-01
-1.693222373723983765e-01
-2.828328311443328857e-01
-4.678624570369720459e-01
-3.224997818470001221e-01
-2.790202796459197998e-01
-3.235874176025390625e-01
-3.109187185764312744e-01
-3.314698338508605957e-01
-2.987658381462097168e-01
-4.828909635543823242e-01
-5.441367030143737793e-01
-4.412536919116973877e-01
-4.620016515254974365e-01
-3.673394918441772461e-01
-3.388073444366455078e-01
-3.825015425682067871e-01
-4.580024182796478271e-01
-3.370935916900634766e-01
-2.324887812137603760e-01
-5.873335599899291992e-01
-3.930013179779052734e-01
-5.125295519828796387e-01
-3.748636543750762939e-01
-2.076644897460937500e-01
-3.859277069568634033e-01
-4.285337626934051514e-01
-3.200955688953399658e-01
-2.862828075885772705e-01
-3.848009407520294189e-01
-3.670848011970520020e-01
-2.952403724193572998e-01
-3.310658931732177734e-01
-5.386806726455688477e-01
-4.066476523876190186e-01
-4.549367129802703857e-01
-5.110276341438293457e-01
-3.566495776176452637e-01
-2.996519804000854492e-01
-5.100924372673034668e-01
-5.294992923736572266e-01
-4.110891520977020264e-01
-4.023230373859405518e-01
-2.835475206375122070e-01
-5.082459449768066406e-01
-6.282014846801757812e-01
-6.310589313507080078e-01
-3.153279423713684082e-01
-4.500936567783355713e-01
-2.691330015659332275e-01
-3.585720062255859375e-01
-3.455753624439239502e-01
-6.312245726585388184e-01
-2.399839609861373901e-01
-5.347731709480285645e-01
-3.121566474437713623e-01
-2.504999339580535889e-01
-4.158045947551727295e-01
-4.063280820846557617e-01
-3.207722008228302002e-01
-5.922582149505615234e-01
1.141547709703445435e-01
1.761627346277236938e-01
1.716606020927429199e-01
2.462026625871658325e-01
1.558215320110321045e-01
1.831040829420089722e-01
1.790173500776290894e-01
1.955858319997787476e-01
1.410221457481384277e-01
4.855769686400890350e-03
1.570135205984115601e-01
2.969103157520294189e-01
2.880279421806335449e-01
1.410335898399353027e-01
3.254271671175956726e-02
3.226482123136520386e-02
1.197347566485404968e-01
1.721352785825729370e-01
2.046238780021667480e-01
-7.353886961936950684e-02
1.332747284322977066e-02
1.592862457036972046e-01
1.301367729902267456e-01
4.595749825239181519e-02
9.654108434915542603e-02
-9.833197295665740967e-02
-3.044449165463447571e-02
-6.272433698177337646e-02
-7.410991191864013672e-02
-1.531048417091369629e-01
-1.583506613969802856e-01
-2.437623292207717896e-01
-1.716826558113098145e-01
-8.223392814397811890e-02
6.790034472942352295e-03
-5.258461833000183105e-01
-6.171153858304023743e-02
1.863951608538627625e-02
-2.540680170059204102e-01
-3.020445406436920166e-01
-5.052585005760192871e-01
-3.347086906433105469e-01
-2.353447526693344116e-01
-4.136112928390502930e-01
-4.170575141906738281e-01
-1.536896228790283203e-01
-4.869987368583679199e-01
-5.352242588996887207e-01
-2.825403213500976562e-01
-2.679246664047241211e-01
-4.079030156135559082e-01
-5.385830402374267578e-01
-3.457847535610198975e-01
-4.750669598579406738e-01
-4.403648376464843750e-01
-3.651714920997619629e-01
-3.923211693763732910e-01
-1.234572455286979675e-01
-3.457309901714324951e-01
-3.110628128051757812e-01
-3.717454075813293457e-01
-3.496364951133728027e-01
-4.858230948448181152e-01
-5.049132704734802246e-01
-3.710376024246215820e-01
-3.691428005695343018e-01
-4.370559155941009521e-01
-4.120387136936187744e-01
-4.519383907318115234e-01
-4.915194213390350342e-01
-5.037760138511657715e-01
-3.968898653984069824e-01
-5.437191724777221680e-01
-3.100373744964599609e-01
-3.099412322044372559e-01
-4.138653874397277832e-01
-3.986283838748931885e-01
-3.264265060424804688e-01
-3.498136401176452637e-01
-4.635093212127685547e-01
-7.021508216857910156e-01
-9.575123190879821777e-01
-9.849870800971984863e-01
-6.511590480804443359e-01
-8.382644653320312500e-01
-9.651651382446289062e-01
-6.935895085334777832e-01
-7.569281458854675293e-01
-6.696299314498901367e-01
-8.935371041297912598e-01
-9.782913327217102051e-01
-9.528570175170898438e-01
-6.658813953399658203e-01
-6.660515666007995605e-01
-7.685937881469726562e-01
-8.446735739707946777e-01
-5.934339761734008789e-01
-9.744233489036560059e-01
-8.987310528755187988e-01
-9.898893237113952637e-01
9.385337680578231812e-02
1.241828650236129761e-01
1.166030019521713257e-01
9.430976957082748413e-02
7.596311718225479126e-02
1.159311607480049133e-01
5.824890360236167908e-02
1.683508604764938354e-02
5.456972494721412659e-02
7.764522731304168701e-02
5.956613272428512573e-02
5.076805129647254944e-02
1.046523302793502808e-01
9.340891242027282715e-02
1.238614395260810852e-01
-7.489331811666488647e-02
4.093648120760917664e-02
-1.047932431101799011e-01
3.712359070777893066e-02
2.067248821258544922e-01
-3.179549425840377808e-02
9.934459626674652100e-02
-5.535727366805076599e-02
-8.572741597890853882e-02
1.849832385778427124e-02
-1.422690600156784058e-01
-1.318953186273574829e-02
-1.483900398015975952e-01
1.098736003041267395e-01
5.686707049608230591e-02
3.401610255241394043e-02
1.002838555723428726e-02
1.265525370836257935e-01
-5.299051478505134583e-02
1.465859264135360718e-02
-4.270577803254127502e-02
1.213366016745567322e-01
-1.244058087468147278e-01
-7.283258438110351562e-02
-3.237735107541084290e-02
1.494220644235610962e-01
-1.300542056560516357e-01
-5.916198343038558960e-02
-1.904444843530654907e-01
-1.290275454521179199e-01
-1.566778868436813354e-02
-1.453543901443481445e-01
-9.071537852287292480e-02
-2.817109972238540649e-02
8.694025874137878418e-02
-7.001377642154693604e-02
6.608608365058898926e-02
-3.419880867004394531e-01
-1.870393902063369751e-01
-2.415038049221038818e-01
-7.040522992610931396e-02
-6.936287134885787964e-02
-1.781118065118789673e-01
-4.003164470195770264e-01
2.123759500682353973e-02
-3.210701346397399902e-01
-8.924983441829681396e-02
-1.675493121147155762e-01
-2.883306741714477539e-01
-3.589027822017669678e-01
-3.762802481651306152e-01
-2.348027825355529785e-01
1.113688666373491287e-02
-1.056443676352500916e-01
-1.007404178380966187e-01
-3.187336027622222900e-01
-4.812560081481933594e-01
1.171599999070167542e-01
-2.075035423040390015e-01
-3.596774339675903320e-01
-1.052296608686447144e-01
-1.939186006784439087e-01
-2.931875884532928467e-01
-1.694212704896926880e-01
-8.105733394622802734e-01
-4.778415262699127197e-01
-5.710633993148803711e-01
-2.927815616130828857e-01
-5.436918139457702637e-01
-3.714839220046997070e-01
-6.350315213203430176e-01
-5.834177136421203613e-01
-6.023777723312377930e-01
-3.290762901306152344e-01
-6.481515169143676758e-01
-4.890705645084381104e-01
-3.010350763797760010e-01
-3.281368017196655273e-01
-6.391170620918273926e-01
-3.616565167903900146e-01
-5.147749781608581543e-01
-5.130730867385864258e-01
-2.392222881317138672e-01
-6.085932850837707520e-01
-3.675055205821990967e-01
3.017783463001251221e-01
2.281358391046524048e-01
2.054127752780914307e-01
1.423696130514144897e-01
2.244411110877990723e-01
1.510657817125320435e-01
2.657434940338134766e-01
2.099640667438507080e-01
1.622987240552902222e-01
2.117103934288024902e-01
1.322721093893051147e-01
3.820099309086799622e-02
5.467716604471206665e-02
1.126561760902404785e-01
6.646178662776947021e-02
1.263339221477508545e-01
2.508294880390167236e-01
1.392018496990203857e-01
7.002940773963928223e-02
5.223925039172172546e-02
1.183747723698616028e-01
1.265706270933151245e-01
1.865139752626419067e-01
1.405620872974395752e-01
-8.064652979373931885e-02
-5.902345106005668640e-02
2.927976287901401520e-02
4.283890128135681152e-02
-1.281122714281082153e-01
-2.428772151470184326e-01
8.293365244753658772e-04
-1.074504703283309937e-01
-2.706606686115264893e-01
-3.491380512714385986e-01
6.865225732326507568e-02
-4.407704621553421021e-02
-4.203189909458160400e-01
-2.439010441303253174e-01
-8.543995767831802368e-02
-2.620472311973571777e-01
-1.853206902742385864e-01
-3.666988611221313477e-01
-2.576224803924560547e-01
-1.297839283943176270e-01
-3.117969036102294922e-01
-4.360216259956359863e-01
-1.961189359426498413e-01
-5.949381589889526367e-01
-5.868412256240844727e-01
-4.460765123367309570e-01
-3.026314377784729004e-01
-3.404592573642730713e-01
-4.367755651473999023e-01
-3.428587317466735840e-01
-4.944682419300079346e-01
-3.782152831554412842e-01
-3.234239816665649414e-01
-2.541879117488861084e-01
-3.182409107685089111e-01
-4.662663936614990234e-01
-3.097747862339019775e-01
-5.461294054985046387e-01
-5.336240530014038086e-01
-3.285838663578033447e-01
-2.985063195228576660e-01
-4.418970048427581787e-01
-2.580761015415191650e-01
-5.437188148498535156e-01
-4.669393599033355713e-01
-4.202229380607604980e-01
-3.786899149417877197e-01
-4.973188340663909912e-01
-3.948255479335784912e-01
-4.061477482318878174e-01
-4.061138927936553955e-01
-4.545811712741851807e-01
-4.100440144538879395e-01
-3.577017486095428467e-01
-3.947135508060455322e-01
-2.604950070381164551e-01
-4.247816205024719238e-01
-4.350470006465911865e-01
-5.560061931610107422e-01
-5.600169301033020020e-01
-5.589593052864074707e-01
-6.476049423217773438e-01
-2.849840819835662842e-01
-5.538859367370605469e-01
-2.914800047874450684e-01
-6.608870029449462891e-01
-5.229973196983337402e-01
-5.931377410888671875e-01
-5.740580558776855469e-01
-2.962053418159484863e-01
-3.898876309394836426e-01
-5.673053264617919922e-01
-4.927754700183868408e-01
-5.902239084243774414e-01
-4.347119331359863281e-01
-2.909505665302276611e-01
1.930207014083862305e-01
2.524645030498504639e-01
2.509566843509674072e-01
1.471519917249679565e-01
2.829639315605163574e-01
2.008574157953262329e-01
1.969171315431594849e-01
2.552928626537322998e-01
1.318507343530654907e-01
1.817453056573867798e-01
9.694966673851013184e-02
1.944523602724075317e-01
1.763710379600524902e-01
1.859059184789657593e-01
1.469841897487640381e-01
1.511172205209732056e-01
1.348519176244735718e-01
-1.201182417571544647e-02
2.044745022431015968e-03
7.284294813871383667e-02
1.335782110691070557e-01
6.995498389005661011e-02
5.221083760261535645e-02
4.254441708326339722e-03
5.453133583068847656e-02
6.911870557814836502e-03
1.802588403224945068e-01
-1.763920858502388000e-02
-3.060800731182098389e-01
-2.496982663869857788e-01
-9.891265630722045898e-02
-4.317647814750671387e-01
-3.232919573783874512e-01
-2.604873776435852051e-01
-1.392033696174621582e-01
-5.975634232163429260e-02
-4.311368167400360107e-01
-1.940664649009704590e-01
-6.187101081013679504e-02
-3.718218505382537842e-01
-3.126778304576873779e-01
-4.229255914688110352e-01
-4.105626046657562256e-01
-2.361325174570083618e-01
-3.536101579666137695e-01
-5.245143175125122070e-01
-3.472911715507507324e-01
-4.715145528316497803e-01
-3.457408547401428223e-01
-3.133029341697692871e-01
-5.440229177474975586e-01
-4.418076872825622559e-01
-3.934356868267059326e-01
-3.277275562286376953e-01
-3.653009831905364990e-01
-4.312288463115692139e-01
-4.101640582084655762e-01
-5.188425779342651367e-01
-3.989544808864593506e-01
-5.077843070030212402e-01
-2.930514514446258545e-01
-3.256860673427581787e-01
-3.376785516738891602e-01
-3.695912957191467285e-01
-2.165235131978988647e-01
-3.598262071609497070e-01
-4.753087460994720459e-01
-4.206162989139556885e-01
-5.790697336196899414e-01
-4.759617149829864502e-01
-5.137185454368591309e-01
-3.593979477882385254e-01
-6.168668866157531738e-01
-2.490953207015991211e-01
-4.782713353633880615e-01
-5.000647902488708496e-01
-2.314755022525787354e-01
-5.779106616973876953e-01
-4.846296608448028564e-01
-5.815656781196594238e-01
-5.910682082176208496e-01
-3.726573884487152100e-01
-6.169377565383911133e-01
-4.805639982223510742e-01
-3.435406386852264404e-01
-3.324388861656188965e-01
-3.314151167869567871e-01
-4.698271751403808594e-01
-6.251991391181945801e-01
-5.953349471092224121e-01
-6.448794007301330566e-01
-4.953081905841827393e-01
-3.148068189620971680e-01
-3.611144423484802246e-01
-2.581013739109039307e-01
-2.881203293800354004e-01
-3.162026703357696533e-01
-4.483077228069305420e-01
-4.658061265945434570e-01
-5.061066746711730957e-01
1.868668645620346069e-01
3.014211058616638184e-01
2.997774183750152588e-01
2.783173918724060059e-01
2.500786185264587402e-01
2.247633188962936401e-01
2.418553084135055542e-01
2.482068836688995361e-01
2.583756744861602783e-01
9.159929305315017700e-02
2.832176089286804199e-01
1.761864423751831055e-01
1.172488480806350708e-01
1.155379861593246460e-01
1.263882368803024292e-01
2.011310458183288574e-01
1.313506066799163818e-01
2.467087358236312866e-01
9.132321923971176147e-02
-9.860442019999027252e-03
1.703604161739349365e-01
-3.672012686729431152e-02
9.437687695026397705e-02
-8.734916150569915771e-02
-9.265693277120590210e-02
-1.227519735693931580e-01
1.114337667822837830e-01
-2.272026091814041138e-01
-1.018124446272850037e-01
-5.724363029003143311e-02
-2.004716247320175171e-01
4.892580211162567139e-02
-1.619257628917694092e-01
-1.077384725213050842e-01
-1.878481954336166382e-01
-2.775738835334777832e-01
-1.946839094161987305e-01
-3.632961809635162354e-01
-4.469263553619384766e-01
-5.128177404403686523e-01
-2.664562463760375977e-01
-1.911847442388534546e-01
-3.691949546337127686e-01
-3.923035860061645508e-01
-1.613799482583999634e-01
-2.787272930145263672e-01
-3.734434843063354492e-01
-5.166118741035461426e-01
-3.436563611030578613e-01
-5.857945084571838379e-01
-5.881106257438659668e-01
-4.103980958461761475e-01
-4.795660674571990967e-01
-5.088695287704467773e-01
-5.581885576248168945e-01
-4.230834841728210449e-01
-3.425574004650115967e-01
-4.058345854282379150e-01
-2.832625210285186768e-01
-5.311785340309143066e-01
-3.503426313400268555e-01
-4.478623270988464355e-01
-3.793211579322814941e-01
-2.862561643123626709e-01
-3.391261696815490723e-01
-4.120078980922698975e-01
-3.707203269004821777e-01
-2.799811661243438721e-01
-5.490072965621948242e-01
-4.369561076164245605e-01
-4.567983746528625488e-01
-3.883854150772094727e-01
-5.305452942848205566e-01
-3.224292099475860596e-01
-3.643240034580230713e-01
-3.575211167335510254e-01
-4.543918073177337646e-01
-4.041496515274047852e-01
-3.550169765949249268e-01
-5.747978687286376953e-01
-8.115386366844177246e-01
-6.219162940979003906e-01
-6.832863688468933105e-01
-1.094221115112304688e+00
-7.948701381683349609e-01
-8.006483912467956543e-01
-7.723487019538879395e-01
-6.541880369186401367e-01
-9.809452891349792480e-01
-1.016357898712158203e+00
-9.229979515075683594e-01
-7.554662227630615234e-01
-8.737068772315979004e-01
-6.783112883567810059e-01
-8.438489437103271484e-01
-5.929968357086181641e-01
-9.118178486824035645e-01
-9.772778749465942383e-01
-6.039943099021911621e-01
-7.586041688919067383e-01
-7.325796782970428467e-02
2.154466211795806885e-01
1.746350377798080444e-01
1.609925925731658936e-01
1.029436215758323669e-01
2.282887697219848633e-03
1.361973583698272705e-01
6.510175019502639771e-02
1.298456937074661255e-01
4.696600511670112610e-02
6.943178176879882812e-02
5.867470800876617432e-02
-1.336948573589324951e-02
3.641112893819808960e-02
-4.668106790632009506e-03
5.620855465531349182e-02
-3.006401099264621735e-02
-5.205900222063064575e-02
5.007648468017578125e-02
1.546809226274490356e-01
-1.179729253053665161e-01
-7.770494557917118073e-03
7.689954340457916260e-02
2.087795548141002655e-02
1.508529633283615112e-01
1.495590209960937500e-01
-1.885516382753849030e-02
8.328697085380554199e-02
1.549491286277770996e-01
-5.522193387150764465e-03
1.173319071531295776e-01
-4.773295670747756958e-02
3.522974997758865356e-02
2.481440901756286621e-01
-1.745510995388031006e-01
6.887686997652053833e-02
1.158364862203598022e-02
3.325143130496144295e-03
-2.091993018984794617e-02
1.691984198987483978e-02
-3.264195024967193604e-01
4.794994369149208069e-02
-3.263507038354873657e-02
-1.313344389200210571e-01
-2.156215310096740723e-01
-7.378281094133853912e-03
-3.479210734367370605e-01
2.888523973524570465e-02
-1.919237151741981506e-02
-2.078760787844657898e-02
1.945220632478594780e-03
-1.528865993022918701e-01
-1.719363778829574585e-01
-9.683907032012939453e-02
-1.167018041014671326e-01
-1.253736577928066254e-02
-2.116524875164031982e-01
4.903035983443260193e-02
-3.417597115039825439e-01
-1.550643295049667358e-01
-2.348040789365768433e-01
-1.407134085893630981e-01
-3.683660328388214111e-01
-2.721773087978363037e-01
-4.249321520328521729e-01
-1.301554888486862183e-01
-5.467979907989501953e-01
-1.569886356592178345e-01
1.045442093163728714e-02
-2.058022655546665192e-02
-3.985210657119750977e-01
-3.684773743152618408e-01
-1.760953515768051147e-01
-3.340291325002908707e-03
-1.180077940225601196e-01
-1.352569311857223511e-01
-3.102167248725891113e-01
-2.251679152250289917e-01
-1.487975269556045532e-01
-8.861037492752075195e-01
-6.486958861351013184e-01
-2.951616942882537842e-01
-4.290056228637695312e-01
-4.637498557567596436e-01
-3.649027347564697266e-01
-4.901297390460968018e-01
-3.700728714466094971e-01
-3.200939595699310303e-01
-5.231866836547851562e-01
-6.213127970695495605e-01
-5.942283272743225098e-01
-2.826470732688903809e-01
-5.169484615325927734e-01
-5.022657513618469238e-01
-3.211984336376190186e-01
-5.017755627632141113e-01
-3.230053782463073730e-01
-6.003409624099731445e-01
-3.781251013278961182e-01
-4.015277624130249023e-01
1.762303858995437622e-01
2.187009155750274658e-01
2.296919375658035278e-01
1.824715137481689453e-01
1.461447626352310181e-01
1.929627209901809692e-01
2.320273071527481079e-01
2.223988026380538940e-01
1.423918455839157104e-01
1.720765531063079834e-01
4.254391789436340332e-02
5.227124318480491638e-02
2.065097987651824951e-01
1.066782474517822266e-01
2.720842894632369280e-05
6.171827018260955811e-02
1.502477973699569702e-01
1.801530867815017700e-01
1.953341960906982422e-01
6.915266811847686768e-02
1.721908301115036011e-01
-2.008920535445213318e-02
-1.978135108947753906e-01
-2.057069092988967896e-01
-9.949132800102233887e-02
5.082159116864204407e-02
-1.053711748681962490e-04
1.265855431556701660e-01
-2.099107019603252411e-02
-1.116078719496726990e-01
-9.415493905544281006e-02
-5.483071878552436829e-02
-2.310622483491897583e-01
-1.090809851884841919e-01
-1.694363057613372803e-01
-2.314826697111129761e-01
-1.427596658468246460e-01
-2.269164919853210449e-01
-1.154740378260612488e-01
-3.319325149059295654e-01
-3.353816270828247070e-01
-3.129193782806396484e-01
-2.193001806735992432e-01
-1.765445172786712646e-01
-1.805321276187896729e-01
-6.171461939811706543e-01
-1.897259503602981567e-01
-2.270550429821014404e-01
-5.625838041305541992e-01
-4.721572697162628174e-01
-4.500063061714172363e-01
-4.425236582756042480e-01
-1.688872724771499634e-01
-2.878166437149047852e-01
-3.874412477016448975e-01
-5.357173681259155273e-01
-4.346201717853546143e-01
-3.514809906482696533e-01
-4.301325380802154541e-01
-4.376848936080932617e-01
-3.901463449001312256e-01
-4.048702120780944824e-01
-3.756027519702911377e-01
-4.647271633148193359e-01
-3.700268268585205078e-01
-5.783973932266235352e-01
-3.756685554981231689e-01
-3.884684443473815918e-01
-4.544585347175598145e-01
-5.908641815185546875e-01
-3.559332191944122314e-01
-3.019721508026123047e-01
-3.794499039649963379e-01
-4.179522991180419922e-01
-4.125069677829742432e-01
-4.204716980457305908e-01
-3.510719537734985352e-01
-3.330771625041961670e-01
-4.749183356761932373e-01
-4.299754798412322998e-01
-2.784025669097900391e-01
-4.544965326786041260e-01
-2.794726192951202393e-01
-6.171339154243469238e-01
-4.249388575553894043e-01
-4.624271094799041748e-01
-5.066311359405517578e-01
-5.997189283370971680e-01
-4.284631311893463135e-01
-6.595700383186340332e-01
-4.945027530193328857e-01
-6.120319366455078125e-01
-2.909908294677734375e-01
-4.622462093830108643e-01
-2.928533554077148438e-01
-2.796096503734588623e-01
-4.654207825660705566e-01
-6.026085615158081055e-01
-3.263615369796752930e-01
-5.693777799606323242e-01
2.262836247682571411e-01
2.456434220075607300e-01
2.186239510774612427e-01
2.540135383605957031e-01
2.256893813610076904e-01
1.737852841615676880e-01
9.579735249280929565e-02
1.880885362625122070e-01
1.411206573247909546e-01
1.947920322418212891e-01
1.821194887161254883e-01
2.387743592262268066e-01
1.353262215852737427e-01
1.336682289838790894e-01
1.505337953567504883e-01
1.052149087190628052e-01
8.075689524412155151e-02
-8.922424912452697754e-02
-9.071367979049682617e-02
2.170650064945220947e-01
8.296662941575050354e-03
-5.370381474494934082e-02
-2.047442048788070679e-01
5.704139545559883118e-02
9.102088212966918945e-02
1.103539913892745972e-01
9.426946192979812622e-02
1.275085210800170898e-01
-9.038794785737991333e-02
4.681447055190801620e-03
-1.359282135963439941e-01
-2.482160925865173340e-01
-1.264609992504119873e-01
4.197012260556221008e-02
-3.949919939041137695e-01
-1.482423990964889526e-01
-2.382538765668869019e-01
-1.575551331043243408e-01
-3.838663101196289062e-01
4.617439582943916321e-02
-2.401256263256072998e-01
-4.099570512771606445e-01
-3.846293091773986816e-01
-4.637666642665863037e-01
-3.330380320549011230e-01
-3.860292434692382812e-01
-3.608725965023040771e-01
-1.704270392656326294e-01
-2.203051000833511353e-01
-4.199351370334625244e-01
-4.731842577457427979e-01
-5.537613630294799805e-01
-4.585323929786682129e-01
-2.489833086729049683e-01
-2.905256450176239014e-01
-4.728281497955322266e-01
-3.470340371131896973e-01
-5.484992265701293945e-01
-4.651814103126525879e-01
-5.999144315719604492e-01
-1.297677457332611084e-01
-2.687841951847076416e-01
-3.587805032730102539e-01
-4.334915876388549805e-01
-1.977314054965972900e-01
-2.986866831779479980e-01
-2.781029343605041504e-01
-4.474416375160217285e-01
-4.694229066371917725e-01
-5.615299940109252930e-01
-4.651640355587005615e-01
-3.493104279041290283e-01
-5.448966622352600098e-01
-4.199788868427276611e-01
-5.294846892356872559e-01
-5.727157592773437500e-01
-3.801419138908386230e-01
-5.809178948402404785e-01
-3.321678042411804199e-01
-5.525653958320617676e-01
-6.475261449813842773e-01
-6.501393318176269531e-01
-3.742826282978057861e-01
-3.160087466239929199e-01
-5.586606860160827637e-01
-4.799479246139526367e-01
-4.149348735809326172e-01
-2.797076404094696045e-01
-4.822853207588195801e-01
-6.563291549682617188e-01
-5.154154896736145020e-01
-2.867962419986724854e-01
-5.371863842010498047e-01
-3.123424649238586426e-01
-3.550450503826141357e-01
-4.769640564918518066e-01
-2.863517701625823975e-01
-4.280197918415069580e-01
-5.782330036163330078e-01
-6.629038453102111816e-01
1.136125773191452026e-01
3.456805646419525146e-01
3.534013628959655762e-01
2.721323668956756592e-01
2.283443510532379150e-01
1.970176398754119873e-01
2.244316339492797852e-01
1.243481487035751343e-01
1.795979887247085571e-01
1.015922576189041138e-01
3.472364246845245361e-01
1.444262713193893433e-01
1.429875195026397705e-01
1.661297529935836792e-01
2.283009290695190430e-01
2.271551340818405151e-01
3.606877988204360008e-03
8.659377694129943848e-02
-8.918819949030876160e-03
1.114538311958312988e-01
2.159900665283203125e-01
-9.568153321743011475e-02
-3.835828974843025208e-02
1.008214503526687622e-01
-2.655649557709693909e-02
-3.096357919275760651e-02
-3.224170580506324768e-02
-2.545869052410125732e-01
-1.660778224468231201e-01
-5.083482339978218079e-02
-1.949236989021301270e-01
-6.302735209465026855e-02
4.149694740772247314e-02
-1.861140578985214233e-01
-3.251970410346984863e-01
-1.003470942378044128e-01
-1.799845397472381592e-01
-6.461072713136672974e-02
-1.690731346607208252e-01
-2.621425688266754150e-01
-1.542850583791732788e-01
-1.942560672760009766e-01
-1.971921622753143311e-01
-1.789957880973815918e-01
-3.358921110630035400e-01
-2.750440239906311035e-01
-4.020771682262420654e-01
-4.179999828338623047e-01
-3.296470642089843750e-01
-3.971721231937408447e-01
-1.034427359700202942e-01
-2.652072906494140625e-01
-4.055992662906646729e-01
-5.331945419311523438e-01
-4.041503071784973145e-01
-3.907556831836700439e-01
-4.601324200630187988e-01
-2.621186673641204834e-01
-2.684705555438995361e-01
-4.811281561851501465e-01
-4.290188848972320557e-01
-4.750407934188842773e-01
-4.415717720985412598e-01
-4.059106707572937012e-01
-3.952202498912811279e-01
-5.407674312591552734e-01
-4.069849550724029541e-01
-4.029793143272399902e-01
-5.728007555007934570e-01
-4.613444805145263672e-01
-4.539803862571716309e-01
-2.813611626625061035e-01
-4.900490343570709229e-01
-3.904851377010345459e-01
-4.318420588970184326e-01
-4.586383700370788574e-01
-4.553723931312561035e-01
-3.468354046344757080e-01
-5.338967442512512207e-01
-6.450726389884948730e-01
-8.433825373649597168e-01
-8.599180579185485840e-01
-7.845338582992553711e-01
-6.357483267784118652e-01
-9.714840054512023926e-01
-6.652416586875915527e-01
-7.966818213462829590e-01
-8.000303506851196289e-01
-7.413710951805114746e-01
-7.702261805534362793e-01
-9.673665165901184082e-01
-6.241073608398437500e-01
-7.871333360671997070e-01
-9.218498468399047852e-01
-6.927433013916015625e-01
-8.242246508598327637e-01
-8.004438281059265137e-01
-1.010346651077270508e+00
-9.931036233901977539e-01
-8.433193564414978027e-01
1.002421602606773376e-02
1.365547627210617065e-01
1.036990284919738770e-01
7.567158341407775879e-02
1.756782084703445435e-01
1.500120609998703003e-01
-9.584757499396800995e-03
1.681508421897888184e-01
1.168624684214591980e-01
2.227970510721206665e-01
3.075681999325752258e-02
2.331416308879852295e-02
3.347920952364802361e-03
-4.037015885114669800e-02
-3.063091821968555450e-02
1.033053547143936157e-01
1.453442275524139404e-01
7.058859616518020630e-02
1.488425303250551224e-02
-1.101301535964012146e-01
5.012717470526695251e-02
-1.138433441519737244e-02
6.452231109142303467e-02
3.154852986335754395e-02
-2.104437164962291718e-02
1.166839823126792908e-01
-1.315289363265037537e-02
-1.286942064762115479e-01
-1.510019749402999878e-01
-2.456565573811531067e-02
4.455764219164848328e-02
1.322004646062850952e-01
-9.202484041452407837e-02
-1.878961473703384399e-01
5.588876083493232727e-03
1.241099685430526733e-01
7.858105003833770752e-02
-8.318723179399967194e-03
9.940114105120301247e-04
-1.887394487857818604e-01
-1.667499542236328125e-01
8.529399335384368896e-02
-1.804755255579948425e-02
-1.027503907680511475e-01
-1.613908447325229645e-02
2.484540687873959541e-03
-2.204165160655975342e-01
-3.273633867502212524e-02
3.699671244248747826e-03
-4.919878765940666199e-02
-4.409250617027282715e-02
-9.496119618415832520e-02
-3.055827692151069641e-02
-6.210153549909591675e-02
-4.442722129169851542e-04
-1.266549080610275269e-01
-4.266998767852783203e-01
-1.811752170324325562e-01
-3.201794028282165527e-01
1.026045531034469604e-01
-2.324546128511428833e-01
-1.878940761089324951e-01
-1.894709616899490356e-01
-5.489679574966430664e-01
-4.909778237342834473e-01
-2.745004743337631226e-02
-3.174871504306793213e-01
-3.437126278877258301e-01
-5.449753627181053162e-02
-5.481335893273353577e-02
-1.388544142246246338e-01
-3.912131190299987793e-01
-1.803418248891830444e-01
-3.815734982490539551e-01
-2.399716675281524658e-01
-2.910023629665374756e-01
-6.759221106767654419e-02
-8.352829515933990479e-02
-1.513200849294662476e-01
-9.432259202003479004e-01
-5.022764801979064941e-01
-7.948245406150817871e-01
-5.780583024024963379e-01
-7.762032151222229004e-01
-7.922832369804382324e-01
-7.225976586341857910e-01
-6.589472293853759766e-01
-8.024333715438842773e-01
-5.164842009544372559e-01
-5.649857521057128906e-01
-7.912789583206176758e-01
-4.271086454391479492e-01
-7.298081517219543457e-01
-5.677478313446044922e-01
-6.781166791915893555e-01
-4.328225255012512207e-01
-5.803972482681274414e-01
-4.976292550563812256e-01
-4.790524542331695557e-01
-6.889125108718872070e-01
-7.856905460357666016e-02
1.598435342311859131e-01
1.823647171258926392e-01
1.085922345519065857e-01
-6.142732873558998108e-02
8.401432633399963379e-02
1.607217639684677124e-01
-3.183498233556747437e-02
4.950155690312385559e-02
-5.020185932517051697e-02
6.459508836269378662e-02
-2.064041979610919952e-02
1.143661066889762878e-01
1.257496327161788940e-01
8.513875305652618408e-02
-8.902640640735626221e-02
-4.933655261993408203e-02
-9.492765367031097412e-02
4.286907613277435303e-02
9.739319980144500732e-02
2.096759621053934097e-03
1.094372123479843140e-01
7.682465016841888428e-02
1.520067546516656876e-02
1.187760978937149048e-01
-8.584531955420970917e-03
-1.527729779481887817e-01
8.909565210342407227e-02
6.238862499594688416e-02
1.076494306325912476e-01
-4.257854819297790527e-02
-1.841147057712078094e-02
-1.174685880541801453e-01
-3.226812928915023804e-02
3.787883324548602104e-03
1.203467547893524170e-01
1.189151927828788757e-01
-3.529901057481765747e-02
2.979847788810729980e-02
3.435108810663223267e-02
1.706647276878356934e-01
-1.331792119890451431e-02
4.296408966183662415e-02
1.610756665468215942e-01
9.266452863812446594e-03
-3.298480436205863953e-02
2.585029900074005127e-01
-1.849154978990554810e-01
-5.755469575524330139e-02
-1.151360850781202316e-02
-2.089873403310775757e-01
-1.355032324790954590e-01
1.569861471652984619e-01
-1.396263837814331055e-01
6.090424209833145142e-02
6.780378520488739014e-02
1.166061591356992722e-02
-1.412426978349685669e-01
1.733247488737106323e-01
-1.861390620470046997e-01
-7.310371100902557373e-02
-1.392066329717636108e-01
9.481208026409149170e-02
7.381979376077651978e-02
2.703105211257934570e-01
-2.840768918395042419e-02
8.448701351881027222e-02
-6.817377358675003052e-02
-1.172359436750411987e-01
-1.982768028974533081e-01
1.331907361745834351e-01
-1.747968606650829315e-02
-7.572300732135772705e-02
-1.326792985200881958e-01
-1.406856905668973923e-02
-2.314704209566116333e-01
-1.719835996627807617e-01
-9.249379485845565796e-02
-8.201457560062408447e-02
-7.142902016639709473e-01
-8.323808312416076660e-01
-8.457731008529663086e-01
-5.419600009918212891e-01
-5.280365943908691406e-01
-5.904091000556945801e-01
-8.765628337860107422e-01
-7.326381802558898926e-01
-6.424857974052429199e-01
-5.288004279136657715e-01
-9.501388072967529297e-01
-7.339496016502380371e-01
-8.500682711601257324e-01
-5.111693739891052246e-01
-5.792770385742187500e-01
-4.310551285743713379e-01
-4.076537191867828369e-01
-5.665296912193298340e-01
-6.931455135345458984e-01
-4.952191412448883057e-01
-8.415643572807312012e-01
4.966145008802413940e-02
1.163616850972175598e-01
1.662248000502586365e-02
8.557208627462387085e-02
-7.928092963993549347e-03
1.654804795980453491e-01
2.523982152342796326e-02
2.030473947525024414e-02
3.938936861231923103e-04
1.984497606754302979e-01
1.511281635612249374e-02
1.566877514123916626e-01
-8.067528158426284790e-02
2.488237805664539337e-02
5.079407244920730591e-02
-1.140098720788955688e-01
-1.287806928157806396e-01
1.156254336237907410e-01
7.775801420211791992e-02
5.991441383957862854e-02
-6.225816160440444946e-02
-2.009545117616653442e-01
-7.423881441354751587e-02
-3.213832899928092957e-02
-6.912393867969512939e-02
7.156395912170410156e-02
-9.136086702346801758e-02
4.512093029916286469e-03
1.455231755971908569e-01
1.732745580375194550e-02
-6.448394805192947388e-02
1.685318946838378906e-01
1.817770898342132568e-01
3.134017437696456909e-02
-1.030478850007057190e-01
7.901942357420921326e-03
1.822198741137981415e-02
-4.154771566390991211e-02
6.866144388914108276e-02
1.628139913082122803e-01
-4.487316310405731201e-02
-2.674723416566848755e-02
-1.089186891913414001e-01
9.901718050241470337e-02
6.988597661256790161e-02
5.601489171385765076e-02
1.251787841320037842e-01
1.603780537843704224e-01
2.241604924201965332e-01
-6.207827106118202209e-02
2.153560519218444824e-02
1.233897134661674500e-01
2.580743096768856049e-02
1.256790757179260254e-01
-1.091037318110466003e-01
7.952125370502471924e-02
1.843883469700813293e-02
-4.732376895844936371e-03
8.644348010420799255e-03
-1.283567249774932861e-01
1.203810200095176697e-01
-2.605797648429870605e-01
4.172263666987419128e-03
2.465750128030776978e-01
-1.026758924126625061e-01
8.165306597948074341e-02
-4.070753348059952259e-04
-7.055601477622985840e-02
-1.673140823841094971e-01
-4.473142698407173157e-02
-1.263222377747297287e-02
-2.902496978640556335e-02
-3.074240088462829590e-01
-1.041502878069877625e-01
-1.226319000124931335e-03
-3.188641741871833801e-02
-6.387020647525787354e-02
-3.794374689459800720e-02
-2.313311994075775146e-01
-6.882472634315490723e-01
-4.985294342041015625e-01
-6.859793663024902344e-01
-7.591345906257629395e-01
-8.097473382949829102e-01
-6.311237215995788574e-01
-8.028631806373596191e-01
-6.028344631195068359e-01
-7.750016450881958008e-01
-5.056397318840026855e-01
-6.328150033950805664e-01
-5.103659033775329590e-01
-5.685903429985046387e-01
-5.379053354263305664e-01
-7.524787783622741699e-01
-4.497199654579162598e-01
-7.605202198028564453e-01
-5.148703455924987793e-01
-7.860373854637145996e-01
-8.245272636413574219e-01
-5.464916229248046875e-01
-3.083262965083122253e-02
4.868406429886817932e-02
2.893771417438983917e-02
1.740270107984542847e-01
9.409981220960617065e-02
-2.609472721815109253e-02
-7.240872830152511597e-02
1.349202841520309448e-01
1.281465683132410049e-02
8.779045194387435913e-03
-7.781831175088882446e-02
-2.570023015141487122e-02
4.208205640316009521e-02
1.573602855205535889e-02
-5.383708514273166656e-03
1.522519886493682861e-01
-1.043400838971138000e-01
-8.046883344650268555e-02
2.272575348615646362e-02
-9.045813977718353271e-02
8.022813126444816589e-03
2.427191287279129028e-02
3.301714360713958740e-02
4.590659588575363159e-02
7.663464546203613281e-02
-3.759485110640525818e-02
1.085883453488349915e-01
-7.345384359359741211e-02
-8.771604299545288086e-02
1.013351902365684509e-01
2.245555520057678223e-01
6.182052195072174072e-02
1.154818534851074219e-01
1.120871677994728088e-01
7.818775624036788940e-02
-3.606854751706123352e-02
-1.384694576263427734e-01
1.073812618851661682e-01
3.781677782535552979e-02
1.030304506421089172e-01
1.588931530714035034e-01
1.144092623144388199e-02
-4.408293217420578003e-02
1.556901037693023682e-01
-9.536469727754592896e-02
-2.767994999885559082e-02
4.439761862158775330e-02
7.103167474269866943e-02
-9.774168580770492554e-02
6.750962138175964355e-02
-5.026312917470932007e-02
-1.206813752651214600e-01
1.082613170146942139e-01
-6.170612573623657227e-02
1.811534315347671509e-01
-8.112967014312744141e-02
2.616003751754760742e-01
-1.189290955662727356e-01
8.875457197427749634e-02
-3.753162687644362450e-03
-7.044149190187454224e-02
-4.816944897174835205e-02
3.347574174404144287e-02
-1.242115274071693420e-01
-3.277615457773208618e-02
-1.144429743289947510e-01
-3.985887765884399414e-02
1.976715028285980225e-02
-5.157028511166572571e-02
-2.822525799274444580e-02
6.672713160514831543e-02
9.669435024261474609e-02
-1.911806017160415649e-01
-1.749781370162963867e-01
1.823276281356811523e-02
-2.568148076534271240e-01
-2.168131023645401001e-01
3.216009587049484253e-02
-3.315963968634605408e-02
-5.000864267349243164e-01
-6.620793938636779785e-01
-6.472650170326232910e-01
-7.949857115745544434e-01
-6.420894265174865723e-01
-7.372631430625915527e-01
-6.650236845016479492e-01
-5.236938595771789551e-01
-5.870693325996398926e-01
-6.394888162612915039e-01
-9.026325345039367676e-01
-6.527477502822875977e-01
-5.265226960182189941e-01
-4.602708816528320312e-01
-5.568011999130249023e-01
-5.733036398887634277e-01
-8.151568770408630371e-01
-4.651229381561279297e-01
-5.404986739158630371e-01
-6.995626091957092285e-01
-8.561158776283264160e-01
2.795444726943969727e-01
1.195840686559677124e-01
1.503581851720809937e-01
1.028337329626083374e-01
2.490425407886505127e-01
2.441165596246719360e-01
5.809476971626281738e-02
1.451537013053894043e-01
3.004707694053649902e-01
2.037277221679687500e-01
-5.771870911121368408e-02
-6.195669248700141907e-02
5.687010288238525391e-02
4.556660354137420654e-02
4.282815754413604736e-02
1.433262514183297753e-04
1.800287663936614990e-01
2.832036614418029785e-01
-2.234064042568206787e-01
-8.398118615150451660e-02
-5.881671234965324402e-02
8.576070517301559448e-02
1.471091955900192261e-01
-4.867530614137649536e-02
-2.835415005683898926e-01
5.387101694941520691e-02
-9.892485104501247406e-03
1.201105564832687378e-01
-8.716943860054016113e-02
-1.569481045007705688e-01
-1.436447650194168091e-01
-9.562878869473934174e-03
-1.572100818157196045e-01
-1.152198668569326401e-02
-4.372350871562957764e-02
-3.433526754379272461e-01
-6.025222688913345337e-02
2.113918587565422058e-02
-5.554872378706932068e-02
-2.859601080417633057e-01
-6.466824561357498169e-02
-4.282572492957115173e-02
1.695488542318344116e-01
-2.291528135538101196e-01
-1.022744365036487579e-02
-1.805692315101623535e-01
-1.863026916980743408e-01
-1.915228068828582764e-01
-2.085439264774322510e-01
-1.979857683181762695e-02
-2.811212241649627686e-01
-5.708650127053260803e-02
-8.245351165533065796e-02
1.412621438503265381e-01
-3.030012249946594238e-01
-3.058099150657653809e-01
-3.789538145065307617e-01
-3.334165513515472412e-01
-1.991387009620666504e-01
-5.603867173194885254e-01
-1.070226058363914490e-01
-3.251387774944305420e-01
-1.463389545679092407e-01
-1.071293428540229797e-01
-5.571012198925018311e-02
-2.415169775485992432e-01
-2.090371400117874146e-01
-3.041561245918273926e-01
-4.717502892017364502e-01
-5.072939991950988770e-01
-3.873177766799926758e-01
-1.324749141931533813e-01
-4.373948574066162109e-01
-3.332296609878540039e-01
-2.203313261270523071e-01
-1.763985306024551392e-01
-3.187976181507110596e-01
-4.479628205299377441e-01
-3.107366561889648438e-01
-5.334205627441406250e-01
